SVM-light Version V6.02
0 # kernel type
3 # kernel parameter -d 
1 # kernel parameter -g 
1 # kernel parameter -s 
1 # kernel parameter -r 
empty# kernel parameter -u 
18637 # highest feature index 
7770 # number of training documents 
11 # number of support vectors plus 1 
1.1490482 # threshold b, each following line is a SV (starting with alpha*y)
-0.00055661344302715583254315134809076 6:0.069159001 14:0.085244998 19:0.048859 25:0.074190997 38:0.117934 59:0.080687001 68:0.080434002 88:0.099976003 91:0.13843501 103:0.197785 141:0.074996002 156:0.079195999 182:0.059563 399:0.13822 587:0.250045 629:0.081373997 630:0.130927 680:0.089489996 766:0.33807501 835:0.13676 991:0.10109 1018:0.356354 1307:0.100848 1419:0.142382 1850:0.147594 2178:0.164538 2500:0.23262399 2501:0.203564 2502:0.53405201 2503:0.160556 #
-0.66529406444858218971916130612954 16:0.039167002 19:0.064493001 35:0.11377 53:0.50903499 103:0.229599 144:0.12802801 158:0.173124 171:0.133167 215:0.079962 229:0.083934002 233:0.092658997 269:0.13496301 297:0.088982999 312:0.095110998 355:0.21789201 467:0.136778 598:0.13463099 611:0.079549 835:0.106618 870:0.23871399 1533:0.14221901 2296:0.264507 2554:0.290185 4670:0.30064401 15696:0.35278201 #
-0.1360179868458561147637198018856 17:0.143924 21:0.073504001 23:0.104887 25:0.074046999 43:0.059512001 56:0.096170999 68:0.080278002 77:0.055452 88:0.058933001 103:0.048857 111:0.18056101 113:0.146608 124:0.144219 126:0.115443 129:0.107843 154:0.081827998 155:0.035696 156:0.143759 157:0.248937 158:0.077312998 159:0.21577799 160:0.12763099 161:0.199334 162:0.37077099 163:0.216098 164:0.17258801 165:0.381758 166:0.137125 167:0.170426 168:0.244932 169:0.170426 170:0.170426 171:0.035123002 172:0.057641 173:0.118896 174:0.094642997 175:0.062931001 176:0.25398499 177:0.092004001 #
-0.14275408195949854106565624078939 16:0.029402999 19:0.048415001 25:0.073515996 81:0.142398 102:0.051651001 111:0.116318 144:0.096110001 145:0.157179 156:0.078474998 159:0.29264501 212:0.157445 230:0.106566 254:0.087745003 306:0.109239 341:0.216217 388:0.121428 389:0.26848301 391:0.121907 392:0.10531 500:0.080334 571:0.096822999 590:0.106369 768:0.124949 769:0.103117 771:0.160173 772:0.28009599 773:0.201882 775:0.128718 870:0.376075 2546:0.22152101 3745:0.29405501 6630:0.34938499 #
-0.081117794579689442291403622675716 25:0.080270998 49:0.063493997 57:0.085905999 71:0.080048002 88:0.108169 103:0.089676999 112:0.077995002 119:0.063335001 158:0.083811998 159:0.319534 164:0.150947 182:0.064443998 215:0.065541998 259:0.091135003 312:0.077959999 357:0.188403 380:0.17127 420:0.098250002 510:0.18530799 521:0.091651998 672:0.090172 683:0.167882 799:0.147561 870:0.331294 871:0.41540501 1164:0.16332699 1180:0.117451 1377:0.15340699 1454:0.16739801 2150:0.234263 2553:0.431999 #
3.47742732326076264826042461209 25:0.079190999 38:0.074348003 44:0.133636 48:0.116032 53:0.37468001 88:0.164464 95:0.056476999 102:0.015658 103:0.052251 113:0.156793 124:0.154237 154:0.051686 156:0.049926002 158:0.048834 159:0.18618201 163:0.23111001 164:0.14891499 166:0.248301 171:0.037563 173:0.12715501 519:0.109316 870:0.297499 1173:0.082937002 2500:0.38267601 4696:0.30133301 17895:0.439657 #
-1.4792647279677579863488290357054 25:0.145808 44:0.117246 48:0.213641 88:0.116046 95:0.103988 102:0.028829999 103:0.096207 113:0.28869101 124:0.353111 129:0.212357 154:0.095165998 156:0.091926001 159:0.342803 164:0.161939 171:0.069162004 173:0.23412099 174:0.186364 519:0.201276 1173:0.152706 2500:0.270017 3507:0.16457801 3927:0.247834 4696:0.26437601 10385:0.28485599 #
-0.68819998354942990559379722981248 10:0.049146 37:0.118738 40:0.285065 64:0.12787101 93:0.14539599 102:0.052239999 103:0.100192 109:0.068696 112:0.051467001 113:0.104875 115:0.083958998 118:0.077724002 119:0.041793 146:0.046461999 166:0.16608299 215:0.043249998 237:0.065723002 312:0.107961 364:0.087834999 420:0.064833 466:0.047773998 541:0.101026 579:0.104743 592:0.071886003 594:0.150528 648:0.061572 695:0.121923 776:0.184349 870:0.129116 991:0.122201 1164:0.18247899 1191:0.089520998 1476:0.091480002 1686:0.270239 1758:0.124533 1885:0.16339301 2071:0.225316 2239:0.13788299 2500:0.396323 2593:0.190813 2594:0.190813 2596:0.190813 3249:0.13140699 4670:0.162613 17895:0.190813 18095:0.206416 #
-0.18557134389222368353600245427515 67:0.19130699 74:0.14051101 94:0.17067499 95:0.060591001 102:0.048156999 103:0.247669 112:0.082548998 119:0.067033 158:0.211678 163:0.52033401 259:0.096455999 275:0.099400997 366:0.123266 486:0.079162002 496:0.13683601 521:0.097003996 651:0.112481 688:0.096294001 776:0.105913 781:0.18705501 920:0.12514199 1195:0.132015 1605:0.147838 2024:0.13960101 2176:0.34149799 2327:0.18148901 6475:0.291412 8605:0.27296799 #
-0.098650726574698505144667137756187 10:0.080931 17:0.080522001 28:0.101693 34:0.219142 39:0.094517 44:0.118757 49:0.180041 80:0.10098 88:0.246674 93:0.091756001 95:0.062208999 103:0.164992 112:0.1435 119:0.068823002 142:0.114539 155:0.071194999 164:0.344228 259:0.207829 297:0.079256997 357:0.20472801 390:0.113125 420:0.180765 467:0.121827 870:0.212622 871:0.51327699 1103:0.151324 1168:0.194509 2840:0.152486 5406:0.237139 #
